network unknown {
}
variable v0 {
  type discrete [ 2 ] { 0, 1 };
}
variable v1 {
  type discrete [ 2 ] { 0, 1 };
}
variable v2 {
  type discrete [ 2 ] { 0, 1 };
}
variable v3 {
  type discrete [ 2 ] { 0, 1 };
}
variable v4 {
  type discrete [ 2 ] { 0, 1 };
}
variable v5 {
  type discrete [ 2 ] { 0, 1 };
}
variable v6 {
  type discrete [ 2 ] { 0, 1 };
}
variable v7 {
  type discrete [ 2 ] { 0, 1 };
}
variable v8 {
  type discrete [ 2 ] { 0, 1 };
}
variable v9 {
  type discrete [ 2 ] { 0, 1 };
}
variable v10 {
  type discrete [ 2 ] { 0, 1 };
}
probability ( v0 | v1, v7 ) {
  (0, 0) 0.6721176592, 0.3278823408;
  (1, 0) 0.3349505840, 0.665049416;
  (0, 1) 0.62038586, 0.37961414;
  (1, 1) 0.8214081840, 0.178591816;
}
probability ( v1 | v3, v7 ) {
  (0, 0) 0.85051343, 0.14948657;
  (1, 0) 0.3870326, 0.6129674;
  (0, 1) 0.1177122, 0.8822878;
  (1, 1) 0.04895789, 0.95104211;
}
probability ( v2 | v7, v8 ) {
  (0, 0) 0.2899262, 0.7100738;
  (1, 0) 5.766701e-01, 0.4233299;
  (0, 1) 0.5794436587, 0.4205563413;
  (1, 1) 6.129037e-01, 0.3870963;
}
probability ( v3 | v7, v8, v10 ) {
  (0, 0, 0) 0.7451772095, 0.2548227905;
  (1, 0, 0) 7.576915e-01, 0.2423085;
  (0, 1, 0) 0.7066581578, 0.2933418422;
  (1, 1, 0) 7.148153e-01, 0.2851847;
  (0, 0, 1) 0.3846008, 0.6153992;
  (1, 0, 1) 0.343172087, 0.656827913;
  (0, 1, 1) 0.2692763938, 0.7307236062;
  (1, 1, 1) 0.27465766, 0.72534234;
}
probability ( v4 | v7, v8 ) {
  (0, 0) 0.30691159, 0.69308841;
  (1, 0) 0.919186742, 0.080813258;
  (0, 1) 0.6558227251, 0.3441772749;
  (1, 1) 8.149777e-01, 0.1850223;
}
probability ( v5 | v6, v9 ) {
  (0, 0) 9.967915e-01, 0.0032085;
  (1, 0) 9.867112e-01, 0.0132888;
  (0, 1) 0.997890295, 0.002109705;
  (1, 1) 0.9571651090, 0.042834891;
}
probability ( v6 | v9 ) {
  (0) 0.2184310, 0.781569;
  (1) 0.07796694, 0.92203306;
}
probability ( v7 | v8 ) {
  (0) 0.3864255, 0.6135745;
  (1) 0.06039638, 0.93960362;
}
probability ( v8 ) {
  table 0.42313152, 0.57686848;
}
probability ( v9 ) {
  table 0.81213356, 0.18786644;
}
probability ( v10 | v7, v8 ) {
  (0, 0) 0.06232176, 0.93767824;
  (1, 0) 0.4475056, 0.5524944;
  (0, 1) 0.3694012, 0.6305988;
  (1, 1) 0.55082326, 0.44917674;
}
